=== Run information ===

Scheme:       weka.classifiers.meta.CostSensitiveClassifier -cost-matrix "[0.0 1.0; 1.0 0.0]" -S 1 -W weka.classifiers.meta.AdaBoostM1 -- -P 100 -S 1 -I 25 -W weka.classifiers.trees.J48 -- -C 0.25 -M 2
Relation:     FitClassificationAsamMahmood
Instances:    188
Attributes:   9
              NUMUORS
              NUMUANDS
              TOTOTORS
              TOTOPAND
              VG
              NLOGIC
              LOC
              ELOC
              class
Test mode:    user supplied test set:  size unknown (reading incrementally)

=== Classifier model (full training set) ===

CostSensitiveClassifier using reweighted training instances

weka.classifiers.meta.AdaBoostM1 -P 100 -S 1 -I 25 -W weka.classifiers.trees.J48 -- -C 0.25 -M 2

Classifier Model
AdaBoostM1: Base classifiers and their weights: 

J48 pruned tree
------------------

TOTOTORS <= 405
|   NUMUORS <= 25: nfp (113.0/2.0)
|   NUMUORS > 25
|   |   NLOGIC <= 7
|   |   |   VG <= 8: fp (2.0)
|   |   |   VG > 8: nfp (13.0/2.0)
|   |   NLOGIC > 7: fp (2.0)
TOTOTORS > 405
|   NUMUORS <= 42
|   |   VG <= 48: fp (29.0/5.0)
|   |   VG > 48
|   |   |   TOTOTORS <= 1522: nfp (7.0)
|   |   |   TOTOTORS > 1522: fp (4.0/1.0)
|   NUMUORS > 42: fp (18.0)

Number of Leaves  : 	8

Size of the tree : 	15


Weight: 2.88

J48 pruned tree
------------------

NUMUORS <= 20: nfp (43.83/0.53)
NUMUORS > 20
|   NUMUORS <= 42
|   |   TOTOPAND <= 402
|   |   |   NUMUANDS <= 115
|   |   |   |   NUMUANDS <= 57
|   |   |   |   |   ELOC <= 25: nfp (3.17)
|   |   |   |   |   ELOC > 25
|   |   |   |   |   |   NLOGIC <= 1
|   |   |   |   |   |   |   TOTOTORS <= 105: fp (9.4)
|   |   |   |   |   |   |   TOTOTORS > 105: nfp (3.17/0.53)
|   |   |   |   |   |   NLOGIC > 1: fp (10.98/0.53)
|   |   |   |   NUMUANDS > 57: nfp (15.84/1.06)
|   |   |   NUMUANDS > 115: fp (21.44)
|   |   TOTOPAND > 402
|   |   |   NUMUORS <= 29: fp (5.81/1.58)
|   |   |   NUMUORS > 29
|   |   |   |   LOC <= 816: nfp (28.73)
|   |   |   |   LOC > 816
|   |   |   |   |   VG <= 34: fp (3.17)
|   |   |   |   |   VG > 34
|   |   |   |   |   |   NUMUORS <= 31: nfp (19.33)
|   |   |   |   |   |   NUMUORS > 31
|   |   |   |   |   |   |   VG <= 63: fp (3.7/0.53)
|   |   |   |   |   |   |   VG > 63: nfp (9.93)
|   NUMUORS > 42: fp (9.51)

Number of Leaves  : 	14

Size of the tree : 	27


Weight: 3.65

J48 pruned tree
------------------

TOTOPAND <= 402
|   ELOC <= 48
|   |   LOC <= 173
|   |   |   ELOC <= 25: nfp (8.67)
|   |   |   ELOC > 25: fp (4.82)
|   |   LOC > 173: nfp (29.41)
|   ELOC > 48
|   |   TOTOPAND <= 252
|   |   |   NLOGIC <= 1: nfp (2.98)
|   |   |   NLOGIC > 1: fp (5.63/0.27)
|   |   TOTOPAND > 252: fp (54.67/1.9)
TOTOPAND > 402
|   NUMUORS <= 42: nfp (76.94/5.42)
|   NUMUORS > 42: fp (4.88)

Number of Leaves  : 	8

Size of the tree : 	15


Weight: 3.17

J48 pruned tree
------------------

LOC <= 718
|   NLOGIC <= 2
|   |   NLOGIC <= 0
|   |   |   NUMUORS <= 28
|   |   |   |   LOC <= 173
|   |   |   |   |   ELOC <= 25: nfp (4.23)
|   |   |   |   |   ELOC > 25: fp (2.51)
|   |   |   |   LOC > 173: nfp (30.13)
|   |   |   NUMUORS > 28
|   |   |   |   VG <= 25: fp (6.15)
|   |   |   |   VG > 25: nfp (2.51)
|   |   NLOGIC > 0
|   |   |   ELOC <= 56: fp (11.74/1.13)
|   |   |   ELOC > 56: nfp (3.36)
|   NLOGIC > 2: nfp (19.01/0.28)
LOC > 718
|   VG <= 109
|   |   NUMUORS <= 29: fp (40.39/0.56)
|   |   NUMUORS > 29
|   |   |   LOC <= 816: nfp (6.01)
|   |   |   LOC > 816
|   |   |   |   NUMUANDS <= 172
|   |   |   |   |   VG <= 30: fp (7.14/0.14)
|   |   |   |   |   VG > 30: nfp (10.47)
|   |   |   |   NUMUANDS > 172: fp (35.12/0.28)
|   VG > 109: nfp (9.22/1.27)

Number of Leaves  : 	14

Size of the tree : 	27


Weight: 3.92

J48 pruned tree
------------------

TOTOPAND <= 1494
|   VG <= 14
|   |   NUMUORS <= 20: nfp (30.37)
|   |   NUMUORS > 20
|   |   |   ELOC <= 48: nfp (23.79/1.28)
|   |   |   ELOC > 48
|   |   |   |   ELOC <= 59: fp (5.41)
|   |   |   |   ELOC > 59: nfp (6.61)
|   VG > 14
|   |   VG <= 58
|   |   |   TOTOTORS <= 405
|   |   |   |   NLOGIC <= 7: nfp (13.74/1.28)
|   |   |   |   NLOGIC > 7: fp (7.23)
|   |   |   TOTOTORS > 405
|   |   |   |   NUMUORS <= 29: fp (18.6)
|   |   |   |   NUMUORS > 29
|   |   |   |   |   NUMUORS <= 37
|   |   |   |   |   |   NUMUANDS <= 172: nfp (6.91/0.29)
|   |   |   |   |   |   NUMUANDS > 172: fp (9.84/1.28)
|   |   |   |   |   NUMUORS > 37: fp (10.49)
|   |   VG > 58: nfp (18.69/1.78)
TOTOPAND > 1494: fp (36.32)

Number of Leaves  : 	12

Size of the tree : 	23


Weight: 3.43

J48 pruned tree
------------------

NUMUANDS <= 29: nfp (13.39)
NUMUANDS > 29
|   NLOGIC <= 0
|   |   VG <= 52: fp (61.19/7.44)
|   |   VG > 52: nfp (6.2)
|   NLOGIC > 0
|   |   LOC <= 909
|   |   |   ELOC <= 48: nfp (10.91)
|   |   |   ELOC > 48
|   |   |   |   LOC <= 540: fp (5.98/0.88)
|   |   |   |   LOC > 540: nfp (29.72/2.32)
|   |   LOC > 909: fp (60.61/3.42)

Number of Leaves  : 	7

Size of the tree : 	13


Weight: 2.52

J48 pruned tree
------------------

LOC <= 1992
|   LOC <= 173: fp (12.1/1.1)
|   LOC > 173
|   |   NUMUORS <= 32
|   |   |   NUMUORS <= 24
|   |   |   |   NUMUANDS <= 104: nfp (30.45)
|   |   |   |   NUMUANDS > 104: fp (3.41/1.02)
|   |   |   NUMUORS > 24
|   |   |   |   TOTOPAND <= 286
|   |   |   |   |   ELOC <= 49: nfp (2.3)
|   |   |   |   |   ELOC > 49: fp (24.74/1.01)
|   |   |   |   TOTOPAND > 286
|   |   |   |   |   NUMUANDS <= 172: nfp (31.2/4.26)
|   |   |   |   |   NUMUANDS > 172
|   |   |   |   |   |   VG <= 52: fp (7.34)
|   |   |   |   |   |   VG > 52: nfp (2.56)
|   |   NUMUORS > 32
|   |   |   NUMUORS <= 37: nfp (40.57/1.57)
|   |   |   NUMUORS > 37
|   |   |   |   TOTOPAND <= 990: fp (2.57)
|   |   |   |   TOTOPAND > 990: nfp (5.95/0.52)
LOC > 1992: fp (24.81)

Number of Leaves  : 	12

Size of the tree : 	23


Weight: 2.94

J48 pruned tree
------------------

TOTOPAND <= 252
|   TOTOPAND <= 56
|   |   VG <= 6: nfp (6.85)
|   |   VG > 6: fp (5.82/0.03)
|   TOTOPAND > 56: nfp (34.94/1.25)
TOTOPAND > 252
|   NUMUORS <= 24: nfp (15.66/1.51)
|   NUMUORS > 24
|   |   NUMUORS <= 29
|   |   |   LOC <= 403: nfp (3.24)
|   |   |   LOC > 403: fp (38.13/1.07)
|   |   NUMUORS > 29
|   |   |   NUMUANDS <= 116: nfp (9.53/0.25)
|   |   |   NUMUANDS > 116
|   |   |   |   VG <= 29: fp (34.16)
|   |   |   |   VG > 29
|   |   |   |   |   TOTOPAND <= 1202: nfp (17.67/1.1)
|   |   |   |   |   TOTOPAND > 1202
|   |   |   |   |   |   VG <= 448: fp (19.67)
|   |   |   |   |   |   VG > 448: nfp (2.33)

Number of Leaves  : 	11

Size of the tree : 	21


Weight: 3.56

J48 pruned tree
------------------

LOC <= 1026
|   VG <= 52
|   |   NLOGIC <= 8
|   |   |   TOTOTORS <= 405
|   |   |   |   NUMUANDS <= 115
|   |   |   |   |   ELOC <= 53
|   |   |   |   |   |   NUMUORS <= 20: nfp (7.32)
|   |   |   |   |   |   NUMUORS > 20
|   |   |   |   |   |   |   ELOC <= 49
|   |   |   |   |   |   |   |   NUMUORS <= 21: fp (4.03/1.05)
|   |   |   |   |   |   |   |   NUMUORS > 21: nfp (4.52)
|   |   |   |   |   |   |   ELOC > 49: fp (5.99)
|   |   |   |   |   ELOC > 53: nfp (21.14)
|   |   |   |   NUMUANDS > 115: fp (6.48)
|   |   |   TOTOTORS > 405
|   |   |   |   NLOGIC <= 2: fp (38.82/1.2)
|   |   |   |   NLOGIC > 2: nfp (4.31/0.13)
|   |   NLOGIC > 8: fp (19.4/0.23)
|   VG > 52: nfp (18.94)
LOC > 1026
|   TOTOTORS <= 1168: fp (33.16/0.27)
|   TOTOTORS > 1168
|   |   TOTOPAND <= 1202: nfp (4.07)
|   |   TOTOPAND > 1202: fp (19.83/1.2)

Number of Leaves  : 	13

Size of the tree : 	25


Weight: 3.81

J48 pruned tree
------------------

NLOGIC <= 5
|   VG <= 94
|   |   ELOC <= 142
|   |   |   VG <= 29
|   |   |   |   NUMUANDS <= 115
|   |   |   |   |   NUMUORS <= 25: nfp (41.02/1.52)
|   |   |   |   |   NUMUORS > 25
|   |   |   |   |   |   VG <= 25
|   |   |   |   |   |   |   NUMUORS <= 26: fp (3.29/0.23)
|   |   |   |   |   |   |   NUMUORS > 26: nfp (6.75)
|   |   |   |   |   |   VG > 25: fp (2.43)
|   |   |   |   NUMUANDS > 115: fp (15.71)
|   |   |   VG > 29: nfp (35.76)
|   |   ELOC > 142: fp (21.83/0.75)
|   VG > 94: nfp (31.55/0.14)
NLOGIC > 5
|   VG <= 12: nfp (5.29)
|   VG > 12
|   |   VG <= 42: fp (17.79)
|   |   VG > 42
|   |   |   TOTOPAND <= 1202: nfp (2.08)
|   |   |   TOTOPAND > 1202: fp (4.52)

Number of Leaves  : 	12

Size of the tree : 	23


Weight: 4.25

J48 pruned tree
------------------

LOC <= 173
|   ELOC <= 25: nfp (4.46)
|   ELOC > 25: fp (54.15)
LOC > 173
|   NUMUORS <= 42
|   |   NLOGIC <= 5
|   |   |   VG <= 52
|   |   |   |   ELOC <= 151
|   |   |   |   |   VG <= 29
|   |   |   |   |   |   NUMUANDS <= 115: nfp (29.83/2.78)
|   |   |   |   |   |   NUMUANDS > 115: fp (7.96)
|   |   |   |   |   VG > 29: nfp (38.89/1.91)
|   |   |   |   ELOC > 151: fp (7.23)
|   |   |   VG > 52: nfp (23.92)
|   |   NLOGIC > 5
|   |   |   VG <= 12: nfp (2.68)
|   |   |   VG > 12: fp (11.67/1.05)
|   NUMUORS > 42: fp (7.21)

Number of Leaves  : 	10

Size of the tree : 	19


Weight: 3.46

J48 pruned tree
------------------

TOTOPAND <= 990
|   ELOC <= 105
|   |   VG <= 25
|   |   |   NUMUANDS <= 29: nfp (5.49)
|   |   |   NUMUANDS > 29
|   |   |   |   NUMUANDS <= 31: fp (27.93)
|   |   |   |   NUMUANDS > 31
|   |   |   |   |   ELOC <= 48: nfp (8.14)
|   |   |   |   |   ELOC > 48
|   |   |   |   |   |   TOTOTORS <= 304: fp (28.7/0.72)
|   |   |   |   |   |   TOTOTORS > 304
|   |   |   |   |   |   |   NUMUANDS <= 115: nfp (3.28)
|   |   |   |   |   |   |   NUMUANDS > 115: fp (4.07)
|   |   VG > 25: nfp (13.05)
|   ELOC > 105: fp (58.16/1.43)
TOTOPAND > 990
|   LOC <= 1992: nfp (35.17/1.0)
|   LOC > 1992: fp (4.01)

Number of Leaves  : 	10

Size of the tree : 	19


Weight: 4.07

J48 pruned tree
------------------

NUMUANDS <= 109
|   NLOGIC <= 2
|   |   VG <= 25
|   |   |   VG <= 4: nfp (2.01)
|   |   |   VG > 4
|   |   |   |   NLOGIC <= 1
|   |   |   |   |   VG <= 7: fp (21.93/2.13)
|   |   |   |   |   VG > 7: nfp (3.46)
|   |   |   |   NLOGIC > 1: fp (7.38/0.06)
|   |   VG > 25: fp (26.39/0.11)
|   NLOGIC > 2: nfp (5.41/1.47)
NUMUANDS > 109
|   TOTOPAND <= 1202: nfp (85.34/4.48)
|   TOTOPAND > 1202
|   |   VG <= 448: fp (32.4/0.5)
|   |   VG > 448: nfp (3.68)

Number of Leaves  : 	9

Size of the tree : 	17


Weight: 3.02

J48 pruned tree
------------------

NUMUORS <= 27
|   VG <= 52
|   |   TOTOPAND <= 246
|   |   |   NUMUANDS <= 47: fp (16.63/5.34)
|   |   |   NUMUANDS > 47: nfp (31.76)
|   |   TOTOPAND > 246: fp (26.14/1.77)
|   VG > 52: nfp (21.01/0.14)
NUMUORS > 27
|   VG <= 29: fp (38.72/0.46)
|   VG > 29
|   |   ELOC <= 151: nfp (12.49)
|   |   ELOC > 151
|   |   |   VG <= 45: fp (24.03)
|   |   |   VG > 45
|   |   |   |   NUMUORS <= 35: nfp (4.41)
|   |   |   |   NUMUORS > 35
|   |   |   |   |   LOC <= 1914: fp (10.11/0.31)
|   |   |   |   |   LOC > 1914: nfp (2.69/0.77)

Number of Leaves  : 	10

Size of the tree : 	19


Weight: 3.02

J48 pruned tree
------------------

NUMUORS <= 27
|   ELOC <= 142
|   |   NUMUANDS <= 112
|   |   |   LOC <= 173
|   |   |   |   ELOC <= 25: nfp (6.56)
|   |   |   |   ELOC > 25: fp (3.91)
|   |   |   LOC > 173
|   |   |   |   NUMUORS <= 25: nfp (75.27)
|   |   |   |   NUMUORS > 25
|   |   |   |   |   NLOGIC <= 1: nfp (12.38/1.54)
|   |   |   |   |   NLOGIC > 1: fp (2.02)
|   |   NUMUANDS > 112
|   |   |   VG <= 39: fp (5.86)
|   |   |   VG > 39: nfp (8.12)
|   ELOC > 142
|   |   VG <= 94: fp (6.9)
|   |   VG > 94: nfp (2.82)
NUMUORS > 27
|   NUMUORS <= 42
|   |   VG <= 63: fp (48.3/13.06)
|   |   VG > 63: nfp (5.09)
|   NUMUORS > 42: fp (10.77)

Number of Leaves  : 	12

Size of the tree : 	23


Weight: 2.47

J48 pruned tree
------------------

NUMUANDS <= 218
|   VG <= 5
|   |   NUMUORS <= 21: nfp (13.95)
|   |   NUMUORS > 21: fp (10.61)
|   VG > 5: nfp (152.97/24.64)
NUMUANDS > 218: fp (10.47/0.74)

Number of Leaves  : 	4

Size of the tree : 	7


Weight: 1.86

J48 pruned tree
------------------

NUMUORS <= 37
|   NUMUORS <= 32
|   |   VG <= 9
|   |   |   LOC <= 173: fp (9.04/1.2)
|   |   |   LOC > 173
|   |   |   |   VG <= 5
|   |   |   |   |   NUMUORS <= 21: nfp (7.03)
|   |   |   |   |   NUMUORS > 21: fp (6.13)
|   |   |   |   VG > 5: nfp (20.64/0.11)
|   |   VG > 9
|   |   |   NLOGIC <= 6
|   |   |   |   NUMUORS <= 23: fp (14.71/0.29)
|   |   |   |   NUMUORS > 23
|   |   |   |   |   VG <= 29
|   |   |   |   |   |   LOC <= 415: nfp (4.01)
|   |   |   |   |   |   LOC > 415
|   |   |   |   |   |   |   NUMUANDS <= 112
|   |   |   |   |   |   |   |   NUMUANDS <= 66: fp (4.3)
|   |   |   |   |   |   |   |   NUMUANDS > 66: nfp (2.81)
|   |   |   |   |   |   |   NUMUANDS > 112: fp (17.17)
|   |   |   |   |   VG > 29
|   |   |   |   |   |   ELOC <= 151: nfp (18.7)
|   |   |   |   |   |   ELOC > 151
|   |   |   |   |   |   |   NUMUANDS <= 212: fp (8.51)
|   |   |   |   |   |   |   NUMUANDS > 212: nfp (2.15/0.55)
|   |   |   NLOGIC > 6: fp (22.7/0.7)
|   NUMUORS > 32
|   |   VG <= 17: fp (2.43)
|   |   VG > 17: nfp (26.72/1.67)
NUMUORS > 37
|   VG <= 448: fp (18.91/1.04)
|   VG > 448: nfp (2.03)

Number of Leaves  : 	17

Size of the tree : 	33


Weight: 3.5

J48 pruned tree
------------------

NUMUANDS <= 248
|   NLOGIC <= 9
|   |   ELOC <= 25: nfp (21.9)
|   |   ELOC > 25
|   |   |   NUMUORS <= 37
|   |   |   |   NUMUORS <= 32
|   |   |   |   |   NLOGIC <= 7
|   |   |   |   |   |   NUMUANDS <= 107
|   |   |   |   |   |   |   ELOC <= 26: fp (4.06/0.02)
|   |   |   |   |   |   |   ELOC > 26
|   |   |   |   |   |   |   |   NLOGIC <= 0: nfp (14.51/0.18)
|   |   |   |   |   |   |   |   NLOGIC > 0
|   |   |   |   |   |   |   |   |   ELOC <= 49: nfp (2.26)
|   |   |   |   |   |   |   |   |   ELOC > 49
|   |   |   |   |   |   |   |   |   |   VG <= 6: fp (2.95)
|   |   |   |   |   |   |   |   |   |   VG > 6
|   |   |   |   |   |   |   |   |   |   |   TOTOTORS <= 233: fp (2.08)
|   |   |   |   |   |   |   |   |   |   |   TOTOTORS > 233: nfp (2.11)
|   |   |   |   |   |   NUMUANDS > 107
|   |   |   |   |   |   |   LOC <= 501: nfp (5.98/1.18)
|   |   |   |   |   |   |   LOC > 501
|   |   |   |   |   |   |   |   TOTOPAND <= 990: fp (22.13/0.91)
|   |   |   |   |   |   |   |   TOTOPAND > 990
|   |   |   |   |   |   |   |   |   NUMUORS <= 29: fp (2.03/0.46)
|   |   |   |   |   |   |   |   |   NUMUORS > 29: nfp (3.38)
|   |   |   |   |   NLOGIC > 7: fp (8.57)
|   |   |   |   NUMUORS > 32: nfp (14.16/1.25)
|   |   |   NUMUORS > 37: fp (7.76)
|   NLOGIC > 9: nfp (33.68/1.05)
NUMUANDS > 248: fp (40.45/1.05)

Number of Leaves  : 	16

Size of the tree : 	31


Weight: 3.4

J48 pruned tree
------------------

VG <= 63
|   VG <= 14
|   |   NUMUANDS <= 112: nfp (44.83/4.69)
|   |   NUMUANDS > 112: fp (4.18)
|   VG > 14
|   |   TOTOTORS <= 405
|   |   |   NLOGIC <= 7: nfp (5.3/0.61)
|   |   |   NLOGIC > 7: fp (3.93)
|   |   TOTOTORS > 405
|   |   |   NUMUANDS <= 137: fp (57.66/0.7)
|   |   |   NUMUANDS > 137
|   |   |   |   LOC <= 736: nfp (5.55/0.65)
|   |   |   |   LOC > 736
|   |   |   |   |   NUMUANDS <= 172
|   |   |   |   |   |   NUMUANDS <= 164: fp (3.46)
|   |   |   |   |   |   NUMUANDS > 164: nfp (3.08)
|   |   |   |   |   NUMUANDS > 172: fp (25.61)
VG > 63: nfp (34.41/1.68)

Number of Leaves  : 	10

Size of the tree : 	19


Weight: 3.07

J48 pruned tree
------------------

VG <= 44
|   NUMUORS <= 25
|   |   NLOGIC <= 0
|   |   |   VG <= 6: nfp (2.93)
|   |   |   VG > 6
|   |   |   |   NUMUORS <= 21: fp (25.83/1.47)
|   |   |   |   NUMUORS > 21: nfp (2.25/0.12)
|   |   NLOGIC > 0
|   |   |   NUMUANDS <= 112: nfp (13.76)
|   |   |   NUMUANDS > 112: fp (2.45)
|   NUMUORS > 25: fp (89.82/6.2)
VG > 44
|   LOC <= 1992
|   |   TOTOPAND <= 1494
|   |   |   NUMUORS <= 43: nfp (28.18/1.97)
|   |   |   NUMUORS > 43: fp (2.13)
|   |   TOTOPAND > 1494: fp (3.83)
|   LOC > 1992: fp (16.83)

Number of Leaves  : 	10

Size of the tree : 	19


Weight: 2.91

J48 pruned tree
------------------

LOC <= 1158
|   NLOGIC <= 2
|   |   NLOGIC <= 1
|   |   |   TOTOPAND <= 252
|   |   |   |   TOTOPAND <= 56: fp (14.26/1.83)
|   |   |   |   TOTOPAND > 56: nfp (28.84)
|   |   |   TOTOPAND > 252
|   |   |   |   LOC <= 368: nfp (3.81)
|   |   |   |   LOC > 368
|   |   |   |   |   NUMUANDS <= 136
|   |   |   |   |   |   NUMUANDS <= 107
|   |   |   |   |   |   |   TOTOPAND <= 286: fp (9.62)
|   |   |   |   |   |   |   TOTOPAND > 286: nfp (5.44/0.4)
|   |   |   |   |   |   NUMUANDS > 107: fp (26.1)
|   |   |   |   |   NUMUANDS > 136
|   |   |   |   |   |   VG <= 25: fp (4.35)
|   |   |   |   |   |   VG > 25: nfp (7.55/0.26)
|   |   NLOGIC > 1: fp (6.81/0.21)
|   NLOGIC > 2: nfp (47.4/1.68)
LOC > 1158
|   VG <= 448: fp (29.36/0.42)
|   VG > 448: nfp (4.46)

Number of Leaves  : 	12

Size of the tree : 	23


Weight: 3.64

J48 pruned tree
------------------

NUMUANDS <= 29: nfp (40.31)
NUMUANDS > 29
|   LOC <= 331
|   |   NLOGIC <= 7
|   |   |   TOTOPAND <= 60: fp (6.38)
|   |   |   TOTOPAND > 60: nfp (3.57)
|   |   NLOGIC > 7: fp (21.28)
|   LOC > 331
|   |   LOC <= 380: nfp (7.17)
|   |   LOC > 380
|   |   |   NLOGIC <= 2
|   |   |   |   VG <= 94
|   |   |   |   |   ELOC <= 105
|   |   |   |   |   |   LOC <= 687
|   |   |   |   |   |   |   ELOC <= 84: fp (18.98/1.79)
|   |   |   |   |   |   |   ELOC > 84: nfp (2.62)
|   |   |   |   |   |   LOC > 687: nfp (7.82/0.44)
|   |   |   |   |   ELOC > 105: fp (25.48/0.13)
|   |   |   |   VG > 94: nfp (3.29)
|   |   |   NLOGIC > 2
|   |   |   |   LOC <= 843: nfp (15.09)
|   |   |   |   LOC > 843
|   |   |   |   |   VG <= 34: fp (12.58)
|   |   |   |   |   VG > 34
|   |   |   |   |   |   TOTOPAND <= 1202: nfp (17.85/2.14)
|   |   |   |   |   |   TOTOPAND > 1202: fp (5.59)

Number of Leaves  : 	14

Size of the tree : 	27


Weight: 3.71

J48 pruned tree
------------------

LOC <= 736
|   NLOGIC <= 8
|   |   NUMUORS <= 20: nfp (34.13)
|   |   NUMUORS > 20
|   |   |   NLOGIC <= 2
|   |   |   |   LOC <= 186: fp (3.67/0.4)
|   |   |   |   LOC > 186
|   |   |   |   |   NUMUORS <= 25: nfp (21.5/0.24)
|   |   |   |   |   NUMUORS > 25
|   |   |   |   |   |   ELOC <= 50: nfp (6.58)
|   |   |   |   |   |   ELOC > 50
|   |   |   |   |   |   |   VG <= 25: fp (9.56/0.99)
|   |   |   |   |   |   |   VG > 25: nfp (3.46/0.14)
|   |   |   NLOGIC > 2: nfp (5.55)
|   NLOGIC > 8
|   |   NUMUANDS <= 59: fp (10.9)
|   |   NUMUANDS > 59: nfp (2.63)
LOC > 736
|   TOTOTORS <= 1168
|   |   TOTOTORS <= 410
|   |   |   TOTOTORS <= 375: nfp (2.74)
|   |   |   TOTOTORS > 375: fp (2.71/0.8)
|   |   TOTOTORS > 410: fp (69.79/1.2)
|   TOTOTORS > 1168
|   |   TOTOPAND <= 1202: nfp (7.52)
|   |   TOTOPAND > 1202: fp (7.28/1.68)

Number of Leaves  : 	14

Size of the tree : 	27


Weight: 3.51

J48 pruned tree
------------------

NLOGIC <= 6
|   NUMUANDS <= 115
|   |   ELOC <= 105: nfp (94.44/3.78)
|   |   ELOC > 105: fp (6.16)
|   NUMUANDS > 115
|   |   VG <= 29: fp (13.04)
|   |   VG > 29
|   |   |   VG <= 94
|   |   |   |   LOC <= 843: nfp (5.69)
|   |   |   |   LOC > 843: fp (4.96/1.35)
|   |   |   VG > 94: nfp (29.48/0.49)
NLOGIC > 6
|   VG <= 44: fp (31.38/1.36)
|   VG > 44: nfp (2.85/0.33)

Number of Leaves  : 	8

Size of the tree : 	15


Weight: 3.21

J48 pruned tree
------------------

VG <= 7
|   VG <= 3: nfp (2.38)
|   VG > 3: fp (41.56/1.98)
VG > 7
|   TOTOPAND <= 1494
|   |   NUMUORS <= 29
|   |   |   NLOGIC <= 1
|   |   |   |   VG <= 18: nfp (23.68)
|   |   |   |   VG > 18
|   |   |   |   |   NUMUANDS <= 172: fp (3.65/0.02)
|   |   |   |   |   NUMUANDS > 172: nfp (5.11)
|   |   |   NLOGIC > 1
|   |   |   |   NUMUORS <= 20: nfp (2.94)
|   |   |   |   NUMUORS > 20: fp (25.52/0.03)
|   |   NUMUORS > 29: nfp (72.62/7.32)
|   TOTOPAND > 1494: fp (10.55)

Number of Leaves  : 	9

Size of the tree : 	17


Weight: 2.95

Number of performed Iterations: 25


Cost Matrix
 0 1
 1 0


Time taken to build model: 0.02 seconds

=== Evaluation on test set ===

Time taken to test model on supplied test set: 0 seconds

=== Summary ===

Correctly Classified Instances          78               82.9787 %
Incorrectly Classified Instances        16               17.0213 %
Kappa statistic                          0.5548
Mean absolute error                      0.1685
Root mean squared error                  0.4086
Relative absolute error                 41.2812 %
Root relative squared error             90.2931 %
Total Number of Instances               94     

=== Detailed Accuracy By Class ===

                 TP Rate  FP Rate  Precision  Recall   F-Measure  MCC      ROC Area  PRC Area  Class
                 0.593    0.075    0.762      0.593    0.667      0.563    0.923     0.785     fp
                 0.925    0.407    0.849      0.925    0.886      0.563    0.903     0.946     nfp
Weighted Avg.    0.830    0.312    0.824      0.830    0.823      0.563    0.909     0.900     

=== Confusion Matrix ===

  a  b   <-- classified as
 16 11 |  a = fp
  5 62 |  b = nfp

